digraph Tree {
node [shape=box, style="filled, rounded", color="black", fontname="helvetica"] ;
edge [fontname="helvetica"] ;
0 [label="x[0] <= 0.33\nsquared_error = 0.007\nsamples = 200\nvalue = 0.072", fillcolor="#f9e1d0"] ;
1 [label="x[0] <= -0.353\nsquared_error = 0.005\nsamples = 164\nvalue = 0.051", fillcolor="#fcefe6"] ;
0 -> 1 [labeldistance=2.5, labelangle=45, headlabel="True"] ;
2 [label="squared_error = 0.001\nsamples = 23\nvalue = 0.196", fillcolor="#e88f4e"] ;
1 -> 2 ;
3 [label="squared_error = 0.002\nsamples = 141\nvalue = 0.027", fillcolor="#ffffff"] ;
1 -> 3 ;
4 [label="x[0] <= 0.422\nsquared_error = 0.002\nsamples = 36\nvalue = 0.17", fillcolor="#eba06a"] ;
0 -> 4 [labeldistance=2.5, labelangle=-45, headlabel="False"] ;
5 [label="squared_error = 0.001\nsamples = 21\nvalue = 0.137", fillcolor="#f0b68c"] ;
4 -> 5 ;
6 [label="squared_error = 0.001\nsamples = 15\nvalue = 0.216", fillcolor="#e58139"] ;
4 -> 6 ;
}